digraph Tree {
node [shape=box, style="filled, rounded", color="black", fontname="helvetica"] ;
edge [fontname="helvetica"] ;
0 [label="age <= 30.5\ngini = 0.724\nsamples = 14\nvalue = [2, 6, 2, 1, 3]\nclass = Classical", fillcolor="#dbf8c9"] ;
1 [label="gender <= 0.5\ngini = 0.719\nsamples = 8\nvalue = [2, 0, 2, 1, 3]\nclass = Jazz", fillcolor="#fbdef4"] ;
0 -> 1 [labeldistance=2.5, labelangle=45, headlabel="True"] ;
2 [label="age <= 23.5\ngini = 0.5\nsamples = 4\nvalue = [2, 0, 2, 0, 0]\nclass = Acoustic", fillcolor="#ffffff"] ;
1 -> 2 ;
3 [label="gini = 0.0\nsamples = 2\nvalue = [0, 0, 2, 0, 0]\nclass = Dance", fillcolor="#39e5c5"] ;
2 -> 3 ;
4 [label="gini = 0.0\nsamples = 2\nvalue = [2, 0, 0, 0, 0]\nclass = Acoustic", fillcolor="#e58139"] ;
2 -> 4 ;
5 [label="age <= 24.5\ngini = 0.375\nsamples = 4\nvalue = [0, 0, 0, 1, 3]\nclass = Jazz", fillcolor="#ee7bd5"] ;
1 -> 5 ;
6 [label="gini = 0.0\nsamples = 1\nvalue = [0, 0, 0, 1, 0]\nclass = HipHop", fillcolor="#3c39e5"] ;
5 -> 6 ;
7 [label="gini = 0.0\nsamples = 3\nvalue = [0, 0, 0, 0, 3]\nclass = Jazz", fillcolor="#e539c0"] ;
5 -> 7 ;
8 [label="gini = 0.0\nsamples = 6\nvalue = [0, 6, 0, 0, 0]\nclass = Classical", fillcolor="#7be539"] ;
0 -> 8 [labeldistance=2.5, labelangle=-45, headlabel="False"] ;
}